digraph Tree {
node [shape=box] ;
0 [label="X[8] <= 0.5\ngini = 0.425\nsamples = 509\nvalue = [156, 353]"] ;
1 [label="X[7] <= 132.0\ngini = 0.432\nsamples = 117\nvalue = [80, 37]"] ;
0 -> 1 [labeldistance=2.5, labelangle=45, headlabel="True"] ;
2 [label="gini = 0.0\nsamples = 2\nvalue = [0, 2]"] ;
1 -> 2 ;
3 [label="X[10] <= 6734.0\ngini = 0.423\nsamples = 115\nvalue = [80, 35]"] ;
1 -> 3 ;
4 [label="X[10] <= 6120.0\ngini = 0.447\nsamples = 101\nvalue = [67, 34]"] ;
3 -> 4 ;
5 [label="X[6] <= 102.5\ngini = 0.415\nsamples = 85\nvalue = [60, 25]"] ;
4 -> 5 ;
6 [label="X[5] <= 1833.0\ngini = 0.489\nsamples = 33\nvalue = [19, 14]"] ;
5 -> 6 ;
7 [label="X[6] <= 82.0\ngini = 0.426\nsamples = 26\nvalue = [18, 8]"] ;
6 -> 7 ;
8 [label="X[5] <= 728.0\ngini = 0.26\nsamples = 13\nvalue = [11, 2]"] ;
7 -> 8 ;
9 [label="X[6] <= 73.5\ngini = 0.165\nsamples = 11\nvalue = [10, 1]"] ;
8 -> 9 ;
10 [label="gini = 0.0\nsamples = 7\nvalue = [7, 0]"] ;
9 -> 10 ;
11 [label="X[6] <= 75.5\ngini = 0.375\nsamples = 4\nvalue = [3, 1]"] ;
9 -> 11 ;
12 [label="gini = 0.0\nsamples = 1\nvalue = [0, 1]"] ;
11 -> 12 ;
13 [label="gini = 0.0\nsamples = 3\nvalue = [3, 0]"] ;
11 -> 13 ;
14 [label="X[5] <= 1560.0\ngini = 0.5\nsamples = 2\nvalue = [1, 1]"] ;
8 -> 14 ;
15 [label="gini = 0.0\nsamples = 1\nvalue = [0, 1]"] ;
14 -> 15 ;
16 [label="gini = 0.0\nsamples = 1\nvalue = [1, 0]"] ;
14 -> 16 ;
17 [label="X[0] <= 0.5\ngini = 0.497\nsamples = 13\nvalue = [7, 6]"] ;
7 -> 17 ;
18 [label="X[10] <= 2319.0\ngini = 0.32\nsamples = 5\nvalue = [1, 4]"] ;
17 -> 18 ;
19 [label="gini = 0.0\nsamples = 1\nvalue = [1, 0]"] ;
18 -> 19 ;
20 [label="gini = 0.0\nsamples = 4\nvalue = [0, 4]"] ;
18 -> 20 ;
21 [label="X[2] <= 0.5\ngini = 0.375\nsamples = 8\nvalue = [6, 2]"] ;
17 -> 21 ;
22 [label="gini = 0.0\nsamples = 5\nvalue = [5, 0]"] ;
21 -> 22 ;
23 [label="X[2] <= 2.0\ngini = 0.444\nsamples = 3\nvalue = [1, 2]"] ;
21 -> 23 ;
24 [label="gini = 0.0\nsamples = 2\nvalue = [0, 2]"] ;
23 -> 24 ;
25 [label="gini = 0.0\nsamples = 1\nvalue = [1, 0]"] ;
23 -> 25 ;
26 [label="X[5] <= 2859.5\ngini = 0.245\nsamples = 7\nvalue = [1, 6]"] ;
6 -> 26 ;
27 [label="gini = 0.0\nsamples = 5\nvalue = [0, 5]"] ;
26 -> 27 ;
28 [label="X[7] <= 330.0\ngini = 0.5\nsamples = 2\nvalue = [1, 1]"] ;
26 -> 28 ;
29 [label="gini = 0.0\nsamples = 1\nvalue = [0, 1]"] ;
28 -> 29 ;
30 [label="gini = 0.0\nsamples = 1\nvalue = [1, 0]"] ;
28 -> 30 ;
31 [label="X[5] <= 867.0\ngini = 0.334\nsamples = 52\nvalue = [41, 11]"] ;
5 -> 31 ;
32 [label="X[10] <= 4927.0\ngini = 0.469\nsamples = 24\nvalue = [15, 9]"] ;
31 -> 32 ;
33 [label="X[10] <= 3094.5\ngini = 0.498\nsamples = 15\nvalue = [7, 8]"] ;
32 -> 33 ;
34 [label="gini = 0.0\nsamples = 2\nvalue = [2, 0]"] ;
33 -> 34 ;
35 [label="X[6] <= 111.0\ngini = 0.473\nsamples = 13\nvalue = [5, 8]"] ;
33 -> 35 ;
36 [label="gini = 0.0\nsamples = 1\nvalue = [1, 0]"] ;
35 -> 36 ;
37 [label="X[10] <= 4133.0\ngini = 0.444\nsamples = 12\nvalue = [4, 8]"] ;
35 -> 37 ;
38 [label="gini = 0.0\nsamples = 4\nvalue = [0, 4]"] ;
37 -> 38 ;
39 [label="X[0] <= 0.5\ngini = 0.5\nsamples = 8\nvalue = [4, 4]"] ;
37 -> 39 ;
40 [label="gini = 0.0\nsamples = 3\nvalue = [3, 0]"] ;
39 -> 40 ;
41 [label="X[6] <= 128.5\ngini = 0.32\nsamples = 5\nvalue = [1, 4]"] ;
39 -> 41 ;
42 [label="X[3] <= 0.5\ngini = 0.5\nsamples = 2\nvalue = [1, 1]"] ;
41 -> 42 ;
43 [label="gini = 0.0\nsamples = 1\nvalue = [1, 0]"] ;
42 -> 43 ;
44 [label="gini = 0.0\nsamples = 1\nvalue = [0, 1]"] ;
42 -> 44 ;
45 [label="gini = 0.0\nsamples = 3\nvalue = [0, 3]"] ;
41 -> 45 ;
46 [label="X[6] <= 153.206\ngini = 0.198\nsamples = 9\nvalue = [8, 1]"] ;
32 -> 46 ;
47 [label="gini = 0.0\nsamples = 7\nvalue = [7, 0]"] ;
46 -> 47 ;
48 [label="X[6] <= 189.0\ngini = 0.5\nsamples = 2\nvalue = [1, 1]"] ;
46 -> 48 ;
49 [label="gini = 0.0\nsamples = 1\nvalue = [0, 1]"] ;
48 -> 49 ;
50 [label="gini = 0.0\nsamples = 1\nvalue = [1, 0]"] ;
48 -> 50 ;
51 [label="X[4] <= 0.5\ngini = 0.133\nsamples = 28\nvalue = [26, 2]"] ;
31 -> 51 ;
52 [label="X[9] <= 1.5\ngini = 0.077\nsamples = 25\nvalue = [24, 1]"] ;
51 -> 52 ;
53 [label="gini = 0.0\nsamples = 18\nvalue = [18, 0]"] ;
52 -> 53 ;
54 [label="X[10] <= 4742.5\ngini = 0.245\nsamples = 7\nvalue = [6, 1]"] ;
52 -> 54 ;
55 [label="X[5] <= 1989.0\ngini = 0.5\nsamples = 2\nvalue = [1, 1]"] ;
54 -> 55 ;
56 [label="gini = 0.0\nsamples = 1\nvalue = [1, 0]"] ;
55 -> 56 ;
57 [label="gini = 0.0\nsamples = 1\nvalue = [0, 1]"] ;
55 -> 57 ;
58 [label="gini = 0.0\nsamples = 5\nvalue = [5, 0]"] ;
54 -> 58 ;
59 [label="X[2] <= 2.0\ngini = 0.444\nsamples = 3\nvalue = [2, 1]"] ;
51 -> 59 ;
60 [label="gini = 0.0\nsamples = 2\nvalue = [2, 0]"] ;
59 -> 60 ;
61 [label="gini = 0.0\nsamples = 1\nvalue = [0, 1]"] ;
59 -> 61 ;
62 [label="X[6] <= 159.0\ngini = 0.492\nsamples = 16\nvalue = [7, 9]"] ;
4 -> 62 ;
63 [label="X[0] <= 0.5\ngini = 0.444\nsamples = 9\nvalue = [6, 3]"] ;
62 -> 63 ;
64 [label="gini = 0.0\nsamples = 3\nvalue = [0, 3]"] ;
63 -> 64 ;
65 [label="gini = 0.0\nsamples = 6\nvalue = [6, 0]"] ;
63 -> 65 ;
66 [label="X[10] <= 6546.0\ngini = 0.245\nsamples = 7\nvalue = [1, 6]"] ;
62 -> 66 ;
67 [label="gini = 0.0\nsamples = 5\nvalue = [0, 5]"] ;
66 -> 67 ;
68 [label="X[6] <= 163.0\ngini = 0.5\nsamples = 2\nvalue = [1, 1]"] ;
66 -> 68 ;
69 [label="gini = 0.0\nsamples = 1\nvalue = [0, 1]"] ;
68 -> 69 ;
70 [label="gini = 0.0\nsamples = 1\nvalue = [1, 0]"] ;
68 -> 70 ;
71 [label="X[2] <= 1.5\ngini = 0.133\nsamples = 14\nvalue = [13, 1]"] ;
3 -> 71 ;
72 [label="gini = 0.0\nsamples = 11\nvalue = [11, 0]"] ;
71 -> 72 ;
73 [label="X[3] <= 0.5\ngini = 0.444\nsamples = 3\nvalue = [2, 1]"] ;
71 -> 73 ;
74 [label="gini = 0.0\nsamples = 2\nvalue = [2, 0]"] ;
73 -> 74 ;
75 [label="gini = 0.0\nsamples = 1\nvalue = [0, 1]"] ;
73 -> 75 ;
76 [label="X[10] <= 2457.0\ngini = 0.313\nsamples = 392\nvalue = [76, 316]"] ;
0 -> 76 [labeldistance=2.5, labelangle=-45, headlabel="False"] ;
77 [label="X[0] <= 0.5\ngini = 0.48\nsamples = 10\nvalue = [6, 4]"] ;
76 -> 77 ;
78 [label="X[6] <= 49.5\ngini = 0.375\nsamples = 4\nvalue = [1, 3]"] ;
77 -> 78 ;
79 [label="gini = 0.0\nsamples = 1\nvalue = [1, 0]"] ;
78 -> 79 ;
80 [label="gini = 0.0\nsamples = 3\nvalue = [0, 3]"] ;
78 -> 80 ;
81 [label="X[4] <= 0.5\ngini = 0.278\nsamples = 6\nvalue = [5, 1]"] ;
77 -> 81 ;
82 [label="gini = 0.0\nsamples = 5\nvalue = [5, 0]"] ;
81 -> 82 ;
83 [label="gini = 0.0\nsamples = 1\nvalue = [0, 1]"] ;
81 -> 83 ;
84 [label="X[7] <= 48.0\ngini = 0.299\nsamples = 382\nvalue = [70, 312]"] ;
76 -> 84 ;
85 [label="gini = 0.0\nsamples = 2\nvalue = [2, 0]"] ;
84 -> 85 ;
86 [label="X[7] <= 420.0\ngini = 0.294\nsamples = 380\nvalue = [68, 312]"] ;
84 -> 86 ;
87 [label="X[9] <= 0.5\ngini = 0.283\nsamples = 370\nvalue = [63, 307]"] ;
86 -> 87 ;
88 [label="X[5] <= 1588.5\ngini = 0.375\nsamples = 108\nvalue = [27, 81]"] ;
87 -> 88 ;
89 [label="X[3] <= 0.5\ngini = 0.469\nsamples = 56\nvalue = [21, 35]"] ;
88 -> 89 ;
90 [label="X[2] <= 1.5\ngini = 0.382\nsamples = 35\nvalue = [9, 26]"] ;
89 -> 90 ;
91 [label="X[5] <= 1318.0\ngini = 0.436\nsamples = 28\nvalue = [9, 19]"] ;
90 -> 91 ;
92 [label="X[10] <= 9981.5\ngini = 0.393\nsamples = 26\nvalue = [7, 19]"] ;
91 -> 92 ;
93 [label="X[10] <= 4846.0\ngini = 0.365\nsamples = 25\nvalue = [6, 19]"] ;
92 -> 93 ;
94 [label="X[6] <= 132.5\ngini = 0.486\nsamples = 12\nvalue = [5, 7]"] ;
93 -> 94 ;
95 [label="X[10] <= 4387.0\ngini = 0.42\nsamples = 10\nvalue = [3, 7]"] ;
94 -> 95 ;
96 [label="gini = 0.0\nsamples = 6\nvalue = [0, 6]"] ;
95 -> 96 ;
97 [label="X[5] <= 605.0\ngini = 0.375\nsamples = 4\nvalue = [3, 1]"] ;
95 -> 97 ;
98 [label="gini = 0.0\nsamples = 3\nvalue = [3, 0]"] ;
97 -> 98 ;
99 [label="gini = 0.0\nsamples = 1\nvalue = [0, 1]"] ;
97 -> 99 ;
100 [label="gini = 0.0\nsamples = 2\nvalue = [2, 0]"] ;
94 -> 100 ;
101 [label="X[6] <= 191.0\ngini = 0.142\nsamples = 13\nvalue = [1, 12]"] ;
93 -> 101 ;
102 [label="gini = 0.0\nsamples = 11\nvalue = [0, 11]"] ;
101 -> 102 ;
103 [label="X[10] <= 6920.5\ngini = 0.5\nsamples = 2\nvalue = [1, 1]"] ;
101 -> 103 ;
104 [label="gini = 0.0\nsamples = 1\nvalue = [0, 1]"] ;
103 -> 104 ;
105 [label="gini = 0.0\nsamples = 1\nvalue = [1, 0]"] ;
103 -> 105 ;
106 [label="gini = 0.0\nsamples = 1\nvalue = [1, 0]"] ;
92 -> 106 ;
107 [label="gini = 0.0\nsamples = 2\nvalue = [2, 0]"] ;
91 -> 107 ;
108 [label="gini = 0.0\nsamples = 7\nvalue = [0, 7]"] ;
90 -> 108 ;
109 [label="X[6] <= 105.0\ngini = 0.49\nsamples = 21\nvalue = [12, 9]"] ;
89 -> 109 ;
110 [label="X[6] <= 56.5\ngini = 0.245\nsamples = 7\nvalue = [6, 1]"] ;
109 -> 110 ;
111 [label="gini = 0.0\nsamples = 1\nvalue = [0, 1]"] ;
110 -> 111 ;
112 [label="gini = 0.0\nsamples = 6\nvalue = [6, 0]"] ;
110 -> 112 ;
113 [label="X[6] <= 116.5\ngini = 0.49\nsamples = 14\nvalue = [6, 8]"] ;
109 -> 113 ;
114 [label="gini = 0.0\nsamples = 4\nvalue = [0, 4]"] ;
113 -> 114 ;
115 [label="X[0] <= 0.5\ngini = 0.48\nsamples = 10\nvalue = [6, 4]"] ;
113 -> 115 ;
116 [label="gini = 0.0\nsamples = 2\nvalue = [0, 2]"] ;
115 -> 116 ;
117 [label="X[2] <= 1.0\ngini = 0.375\nsamples = 8\nvalue = [6, 2]"] ;
115 -> 117 ;
118 [label="gini = 0.0\nsamples = 3\nvalue = [3, 0]"] ;
117 -> 118 ;
119 [label="X[6] <= 165.0\ngini = 0.48\nsamples = 5\nvalue = [3, 2]"] ;
117 -> 119 ;
120 [label="X[6] <= 129.5\ngini = 0.444\nsamples = 3\nvalue = [1, 2]"] ;
119 -> 120 ;
121 [label="gini = 0.0\nsamples = 1\nvalue = [1, 0]"] ;
120 -> 121 ;
122 [label="gini = 0.0\nsamples = 2\nvalue = [0, 2]"] ;
120 -> 122 ;
123 [label="gini = 0.0\nsamples = 2\nvalue = [2, 0]"] ;
119 -> 123 ;
124 [label="X[7] <= 132.0\ngini = 0.204\nsamples = 52\nvalue = [6, 46]"] ;
88 -> 124 ;
125 [label="gini = 0.0\nsamples = 1\nvalue = [1, 0]"] ;
124 -> 125 ;
126 [label="X[6] <= 157.0\ngini = 0.177\nsamples = 51\nvalue = [5, 46]"] ;
124 -> 126 ;
127 [label="X[5] <= 2194.0\ngini = 0.097\nsamples = 39\nvalue = [2, 37]"] ;
126 -> 127 ;
128 [label="gini = 0.0\nsamples = 20\nvalue = [0, 20]"] ;
127 -> 128 ;
129 [label="X[5] <= 2216.0\ngini = 0.188\nsamples = 19\nvalue = [2, 17]"] ;
127 -> 129 ;
130 [label="gini = 0.0\nsamples = 1\nvalue = [1, 0]"] ;
129 -> 130 ;
131 [label="X[10] <= 4780.0\ngini = 0.105\nsamples = 18\nvalue = [1, 17]"] ;
129 -> 131 ;
132 [label="X[10] <= 4543.5\ngini = 0.375\nsamples = 4\nvalue = [1, 3]"] ;
131 -> 132 ;
133 [label="gini = 0.0\nsamples = 3\nvalue = [0, 3]"] ;
132 -> 133 ;
134 [label="gini = 0.0\nsamples = 1\nvalue = [1, 0]"] ;
132 -> 134 ;
135 [label="gini = 0.0\nsamples = 14\nvalue = [0, 14]"] ;
131 -> 135 ;
136 [label="X[5] <= 2404.5\ngini = 0.375\nsamples = 12\nvalue = [3, 9]"] ;
126 -> 136 ;
137 [label="X[6] <= 177.5\ngini = 0.5\nsamples = 6\nvalue = [3, 3]"] ;
136 -> 137 ;
138 [label="gini = 0.0\nsamples = 2\nvalue = [2, 0]"] ;
137 -> 138 ;
139 [label="X[2] <= 1.0\ngini = 0.375\nsamples = 4\nvalue = [1, 3]"] ;
137 -> 139 ;
140 [label="gini = 0.0\nsamples = 3\nvalue = [0, 3]"] ;
139 -> 140 ;
141 [label="gini = 0.0\nsamples = 1\nvalue = [1, 0]"] ;
139 -> 141 ;
142 [label="gini = 0.0\nsamples = 6\nvalue = [0, 6]"] ;
136 -> 142 ;
143 [label="X[6] <= 137.5\ngini = 0.237\nsamples = 262\nvalue = [36, 226]"] ;
87 -> 143 ;
144 [label="X[10] <= 10188.0\ngini = 0.18\nsamples = 180\nvalue = [18, 162]"] ;
143 -> 144 ;
145 [label="X[6] <= 113.5\ngini = 0.172\nsamples = 179\nvalue = [17, 162]"] ;
144 -> 145 ;
146 [label="X[10] <= 3863.0\ngini = 0.23\nsamples = 113\nvalue = [15, 98]"] ;
145 -> 146 ;
147 [label="X[9] <= 1.5\ngini = 0.103\nsamples = 55\nvalue = [3, 52]"] ;
146 -> 147 ;
148 [label="gini = 0.0\nsamples = 28\nvalue = [0, 28]"] ;
147 -> 148 ;
149 [label="X[6] <= 72.5\ngini = 0.198\nsamples = 27\nvalue = [3, 24]"] ;
147 -> 149 ;
150 [label="gini = 0.0\nsamples = 12\nvalue = [0, 12]"] ;
149 -> 150 ;
151 [label="X[1] <= 0.5\ngini = 0.32\nsamples = 15\nvalue = [3, 12]"] ;
149 -> 151 ;
152 [label="X[6] <= 98.0\ngini = 0.49\nsamples = 7\nvalue = [3, 4]"] ;
151 -> 152 ;
153 [label="X[0] <= 0.5\ngini = 0.48\nsamples = 5\nvalue = [3, 2]"] ;
152 -> 153 ;
154 [label="gini = 0.0\nsamples = 2\nvalue = [0, 2]"] ;
153 -> 154 ;
155 [label="gini = 0.0\nsamples = 3\nvalue = [3, 0]"] ;
153 -> 155 ;
156 [label="gini = 0.0\nsamples = 2\nvalue = [0, 2]"] ;
152 -> 156 ;
157 [label="gini = 0.0\nsamples = 8\nvalue = [0, 8]"] ;
151 -> 157 ;
158 [label="X[0] <= 0.5\ngini = 0.328\nsamples = 58\nvalue = [12, 46]"] ;
146 -> 158 ;
159 [label="X[4] <= 0.5\ngini = 0.496\nsamples = 11\nvalue = [5, 6]"] ;
158 -> 159 ;
160 [label="X[6] <= 107.5\ngini = 0.444\nsamples = 9\nvalue = [3, 6]"] ;
159 -> 160 ;
161 [label="X[10] <= 4579.5\ngini = 0.278\nsamples = 6\nvalue = [1, 5]"] ;
160 -> 161 ;
162 [label="gini = 0.0\nsamples = 4\nvalue = [0, 4]"] ;
161 -> 162 ;
163 [label="X[5] <= 2243.0\ngini = 0.5\nsamples = 2\nvalue = [1, 1]"] ;
161 -> 163 ;
164 [label="gini = 0.0\nsamples = 1\nvalue = [1, 0]"] ;
163 -> 164 ;
165 [label="gini = 0.0\nsamples = 1\nvalue = [0, 1]"] ;
163 -> 165 ;
166 [label="X[10] <= 4226.5\ngini = 0.444\nsamples = 3\nvalue = [2, 1]"] ;
160 -> 166 ;
167 [label="gini = 0.0\nsamples = 1\nvalue = [0, 1]"] ;
166 -> 167 ;
168 [label="gini = 0.0\nsamples = 2\nvalue = [2, 0]"] ;
166 -> 168 ;
169 [label="gini = 0.0\nsamples = 2\nvalue = [2, 0]"] ;
159 -> 169 ;
170 [label="X[5] <= 2428.0\ngini = 0.254\nsamples = 47\nvalue = [7, 40]"] ;
158 -> 170 ;
171 [label="X[5] <= 768.0\ngini = 0.184\nsamples = 39\nvalue = [4, 35]"] ;
170 -> 171 ;
172 [label="X[5] <= 718.0\ngini = 0.346\nsamples = 18\nvalue = [4, 14]"] ;
171 -> 172 ;
173 [label="X[10] <= 3887.5\ngini = 0.291\nsamples = 17\nvalue = [3, 14]"] ;
172 -> 173 ;
174 [label="gini = 0.0\nsamples = 1\nvalue = [1, 0]"] ;
173 -> 174 ;
175 [label="X[2] <= 1.5\ngini = 0.219\nsamples = 16\nvalue = [2, 14]"] ;
173 -> 175 ;
176 [label="gini = 0.0\nsamples = 8\nvalue = [0, 8]"] ;
175 -> 176 ;
177 [label="X[10] <= 4423.5\ngini = 0.375\nsamples = 8\nvalue = [2, 6]"] ;
175 -> 177 ;
178 [label="gini = 0.0\nsamples = 4\nvalue = [0, 4]"] ;
177 -> 178 ;
179 [label="X[10] <= 4628.5\ngini = 0.5\nsamples = 4\nvalue = [2, 2]"] ;
177 -> 179 ;
180 [label="gini = 0.0\nsamples = 1\nvalue = [1, 0]"] ;
179 -> 180 ;
181 [label="X[6] <= 97.0\ngini = 0.444\nsamples = 3\nvalue = [1, 2]"] ;
179 -> 181 ;
182 [label="gini = 0.0\nsamples = 1\nvalue = [1, 0]"] ;
181 -> 182 ;
183 [label="gini = 0.0\nsamples = 2\nvalue = [0, 2]"] ;
181 -> 183 ;
184 [label="gini = 0.0\nsamples = 1\nvalue = [1, 0]"] ;
172 -> 184 ;
185 [label="gini = 0.0\nsamples = 21\nvalue = [0, 21]"] ;
171 -> 185 ;
186 [label="X[6] <= 100.0\ngini = 0.469\nsamples = 8\nvalue = [3, 5]"] ;
170 -> 186 ;
187 [label="gini = 0.0\nsamples = 4\nvalue = [0, 4]"] ;
186 -> 187 ;
188 [label="X[1] <= 0.5\ngini = 0.375\nsamples = 4\nvalue = [3, 1]"] ;
186 -> 188 ;
189 [label="gini = 0.0\nsamples = 1\nvalue = [0, 1]"] ;
188 -> 189 ;
190 [label="gini = 0.0\nsamples = 3\nvalue = [3, 0]"] ;
188 -> 190 ;
191 [label="X[10] <= 3567.5\ngini = 0.059\nsamples = 66\nvalue = [2, 64]"] ;
145 -> 191 ;
192 [label="X[10] <= 3252.0\ngini = 0.444\nsamples = 3\nvalue = [1, 2]"] ;
191 -> 192 ;
193 [label="gini = 0.0\nsamples = 2\nvalue = [0, 2]"] ;
192 -> 193 ;
194 [label="gini = 0.0\nsamples = 1\nvalue = [1, 0]"] ;
192 -> 194 ;
195 [label="X[6] <= 133.5\ngini = 0.031\nsamples = 63\nvalue = [1, 62]"] ;
191 -> 195 ;
196 [label="gini = 0.0\nsamples = 51\nvalue = [0, 51]"] ;
195 -> 196 ;
197 [label="X[2] <= 1.5\ngini = 0.153\nsamples = 12\nvalue = [1, 11]"] ;
195 -> 197 ;
198 [label="gini = 0.0\nsamples = 10\nvalue = [0, 10]"] ;
197 -> 198 ;
199 [label="X[5] <= 780.0\ngini = 0.5\nsamples = 2\nvalue = [1, 1]"] ;
197 -> 199 ;
200 [label="gini = 0.0\nsamples = 1\nvalue = [1, 0]"] ;
199 -> 200 ;
201 [label="gini = 0.0\nsamples = 1\nvalue = [0, 1]"] ;
199 -> 201 ;
202 [label="gini = 0.0\nsamples = 1\nvalue = [1, 0]"] ;
144 -> 202 ;
203 [label="X[10] <= 4560.0\ngini = 0.343\nsamples = 82\nvalue = [18, 64]"] ;
143 -> 203 ;
204 [label="X[2] <= 0.5\ngini = 0.375\nsamples = 8\nvalue = [6, 2]"] ;
203 -> 204 ;
205 [label="gini = 0.0\nsamples = 2\nvalue = [0, 2]"] ;
204 -> 205 ;
206 [label="gini = 0.0\nsamples = 6\nvalue = [6, 0]"] ;
204 -> 206 ;
207 [label="X[3] <= 0.5\ngini = 0.272\nsamples = 74\nvalue = [12, 62]"] ;
203 -> 207 ;
208 [label="X[10] <= 5620.0\ngini = 0.23\nsamples = 68\nvalue = [9, 59]"] ;
207 -> 208 ;
209 [label="gini = 0.0\nsamples = 16\nvalue = [0, 16]"] ;
208 -> 209 ;
210 [label="X[10] <= 5712.5\ngini = 0.286\nsamples = 52\nvalue = [9, 43]"] ;
208 -> 210 ;
211 [label="gini = 0.0\nsamples = 1\nvalue = [1, 0]"] ;
210 -> 211 ;
212 [label="X[5] <= 2619.0\ngini = 0.265\nsamples = 51\nvalue = [8, 43]"] ;
210 -> 212 ;
213 [label="X[5] <= 2534.5\ngini = 0.313\nsamples = 36\nvalue = [7, 29]"] ;
212 -> 213 ;
214 [label="X[9] <= 1.5\ngini = 0.284\nsamples = 35\nvalue = [6, 29]"] ;
213 -> 214 ;
215 [label="X[10] <= 6821.0\ngini = 0.355\nsamples = 26\nvalue = [6, 20]"] ;
214 -> 215 ;
216 [label="X[5] <= 2181.0\ngini = 0.463\nsamples = 11\nvalue = [4, 7]"] ;
215 -> 216 ;
217 [label="X[1] <= 0.5\ngini = 0.5\nsamples = 8\nvalue = [4, 4]"] ;
216 -> 217 ;
218 [label="gini = 0.0\nsamples = 2\nvalue = [2, 0]"] ;
217 -> 218 ;
219 [label="X[10] <= 6047.5\ngini = 0.444\nsamples = 6\nvalue = [2, 4]"] ;
217 -> 219 ;
220 [label="gini = 0.0\nsamples = 1\nvalue = [1, 0]"] ;
219 -> 220 ;
221 [label="X[2] <= 2.5\ngini = 0.32\nsamples = 5\nvalue = [1, 4]"] ;
219 -> 221 ;
222 [label="gini = 0.0\nsamples = 4\nvalue = [0, 4]"] ;
221 -> 222 ;
223 [label="gini = 0.0\nsamples = 1\nvalue = [1, 0]"] ;
221 -> 223 ;
224 [label="gini = 0.0\nsamples = 3\nvalue = [0, 3]"] ;
216 -> 224 ;
225 [label="X[10] <= 9780.0\ngini = 0.231\nsamples = 15\nvalue = [2, 13]"] ;
215 -> 225 ;
226 [label="X[6] <= 167.5\ngini = 0.142\nsamples = 13\nvalue = [1, 12]"] ;
225 -> 226 ;
227 [label="X[0] <= 0.5\ngini = 0.444\nsamples = 3\nvalue = [1, 2]"] ;
226 -> 227 ;
228 [label="gini = 0.0\nsamples = 2\nvalue = [0, 2]"] ;
227 -> 228 ;
229 [label="gini = 0.0\nsamples = 1\nvalue = [1, 0]"] ;
227 -> 229 ;
230 [label="gini = 0.0\nsamples = 10\nvalue = [0, 10]"] ;
226 -> 230 ;
231 [label="X[7] <= 300.0\ngini = 0.5\nsamples = 2\nvalue = [1, 1]"] ;
225 -> 231 ;
232 [label="gini = 0.0\nsamples = 1\nvalue = [0, 1]"] ;
231 -> 232 ;
233 [label="gini = 0.0\nsamples = 1\nvalue = [1, 0]"] ;
231 -> 233 ;
234 [label="gini = 0.0\nsamples = 9\nvalue = [0, 9]"] ;
214 -> 234 ;
235 [label="gini = 0.0\nsamples = 1\nvalue = [1, 0]"] ;
213 -> 235 ;
236 [label="X[5] <= 4458.5\ngini = 0.124\nsamples = 15\nvalue = [1, 14]"] ;
212 -> 236 ;
237 [label="gini = 0.0\nsamples = 12\nvalue = [0, 12]"] ;
236 -> 237 ;
238 [label="X[5] <= 4907.0\ngini = 0.444\nsamples = 3\nvalue = [1, 2]"] ;
236 -> 238 ;
239 [label="gini = 0.0\nsamples = 1\nvalue = [1, 0]"] ;
238 -> 239 ;
240 [label="gini = 0.0\nsamples = 2\nvalue = [0, 2]"] ;
238 -> 240 ;
241 [label="X[2] <= 0.5\ngini = 0.5\nsamples = 6\nvalue = [3, 3]"] ;
207 -> 241 ;
242 [label="gini = 0.0\nsamples = 3\nvalue = [3, 0]"] ;
241 -> 242 ;
243 [label="gini = 0.0\nsamples = 3\nvalue = [0, 3]"] ;
241 -> 243 ;
244 [label="X[9] <= 1.5\ngini = 0.5\nsamples = 10\nvalue = [5, 5]"] ;
86 -> 244 ;
245 [label="X[10] <= 6149.5\ngini = 0.469\nsamples = 8\nvalue = [3, 5]"] ;
244 -> 245 ;
246 [label="X[10] <= 2662.5\ngini = 0.278\nsamples = 6\nvalue = [1, 5]"] ;
245 -> 246 ;
247 [label="gini = 0.0\nsamples = 1\nvalue = [1, 0]"] ;
246 -> 247 ;
248 [label="gini = 0.0\nsamples = 5\nvalue = [0, 5]"] ;
246 -> 248 ;
249 [label="gini = 0.0\nsamples = 2\nvalue = [2, 0]"] ;
245 -> 249 ;
250 [label="gini = 0.0\nsamples = 2\nvalue = [2, 0]"] ;
244 -> 250 ;
}
